<?xml version="1.0"?>
<opencv_storage>
<cascade>
  <stageType>BOOST</stageType>
<<<<<<< HEAD
  <featureType>HAAR</featureType>
=======
  <featureType>LBP</featureType>
>>>>>>> 94b34fb9a8ac7b3e6440b5ab465d4609b745a7b6
  <height>48</height>
  <width>27</width>
  <stageParams>
    <boostType>GAB</boostType>
    <minHitRate>9.9500000476837158e-01</minHitRate>
    <maxFalseAlarm>5.0000000000000000e-01</maxFalseAlarm>
    <weightTrimRate>9.4999999999999996e-01</weightTrimRate>
    <maxDepth>1</maxDepth>
    <maxWeakCount>100</maxWeakCount></stageParams>
  <featureParams>
<<<<<<< HEAD
    <maxCatCount>0</maxCatCount>
    <featSize>1</featSize>
    <mode>ALL</mode></featureParams>
  <stageNum>8</stageNum>
  <stages>
    <!-- stage 0 -->
    <_>
      <maxWeakCount>3</maxWeakCount>
      <stageThreshold>-8.0139994621276855e-01</stageThreshold>
      <weakClassifiers>
        <_>
          <internalNodes>
            0 -1 10 -2.8104232624173164e-03</internalNodes>
          <leafValues>
            8.5096871852874756e-01 -6.2822252511978149e-01</leafValues></_>
        <_>
          <internalNodes>
            0 -1 7 6.0395598411560059e-03</internalNodes>
          <leafValues>
            -6.4850580692291260e-01 7.4955648183822632e-01</leafValues></_>
        <_>
          <internalNodes>
            0 -1 28 1.5326952561736107e-03</internalNodes>
          <leafValues>
            -9.4394481182098389e-01 4.7532835602760315e-01</leafValues></_></weakClassifiers></_>
    <!-- stage 1 -->
    <_>
      <maxWeakCount>3</maxWeakCount>
      <stageThreshold>-4.6116170287132263e-01</stageThreshold>
      <weakClassifiers>
        <_>
          <internalNodes>
            0 -1 11 1.3877358287572861e-03</internalNodes>
          <leafValues>
            -7.0721650123596191e-01 8.7243509292602539e-01</leafValues></_>
        <_>
          <internalNodes>
            0 -1 26 2.0674553234130144e-03</internalNodes>
          <leafValues>
            -6.4265769720077515e-01 7.7874100208282471e-01</leafValues></_>
        <_>
          <internalNodes>
            0 -1 12 -1.1444143950939178e-02</internalNodes>
          <leafValues>
            8.9876264333724976e-01 -5.3268623352050781e-01</leafValues></_></weakClassifiers></_>
    <!-- stage 2 -->
    <_>
      <maxWeakCount>4</maxWeakCount>
      <stageThreshold>-5.7035011053085327e-01</stageThreshold>
      <weakClassifiers>
        <_>
          <internalNodes>
            0 -1 5 1.1065860092639923e-01</internalNodes>
          <leafValues>
            -7.2456961870193481e-01 8.1146377325057983e-01</leafValues></_>
        <_>
          <internalNodes>
            0 -1 21 5.9882376808673143e-04</internalNodes>
          <leafValues>
            6.0470527410507202e-01 -8.8831132650375366e-01</leafValues></_>
        <_>
          <internalNodes>
            0 -1 15 7.2969518601894379e-02</internalNodes>
          <leafValues>
            -8.1748402118682861e-01 5.4482865333557129e-01</leafValues></_>
        <_>
          <internalNodes>
            0 -1 6 4.7163471579551697e-02</internalNodes>
          <leafValues>
            3.6699825525283813e-01 -9.5041376352310181e-01</leafValues></_></weakClassifiers></_>
    <!-- stage 3 -->
    <_>
      <maxWeakCount>4</maxWeakCount>
      <stageThreshold>-1.3939037322998047e+00</stageThreshold>
      <weakClassifiers>
        <_>
          <internalNodes>
            0 -1 20 6.7873820662498474e-02</internalNodes>
          <leafValues>
            -8.4536957740783691e-01 8.0846631526947021e-01</leafValues></_>
        <_>
          <internalNodes>
            0 -1 0 -2.3972894996404648e-02</internalNodes>
          <leafValues>
            5.8869606256484985e-01 -8.3342266082763672e-01</leafValues></_>
        <_>
          <internalNodes>
            0 -1 8 5.3831287659704685e-03</internalNodes>
          <leafValues>
            -6.7544895410537720e-01 7.2728985548019409e-01</leafValues></_>
        <_>
          <internalNodes>
            0 -1 23 -1.4291146397590637e-01</internalNodes>
          <leafValues>
            5.3880494832992554e-01 -6.9349843263626099e-01</leafValues></_></weakClassifiers></_>
    <!-- stage 4 -->
    <_>
      <maxWeakCount>4</maxWeakCount>
      <stageThreshold>-2.7821001410484314e-01</stageThreshold>
      <weakClassifiers>
        <_>
          <internalNodes>
            0 -1 4 1.8888285383582115e-02</internalNodes>
          <leafValues>
            7.1186441183090210e-01 -8.6414253711700439e-01</leafValues></_>
        <_>
          <internalNodes>
            0 -1 24 -1.2022335827350616e-01</internalNodes>
          <leafValues>
            5.7082331180572510e-01 -6.9496393203735352e-01</leafValues></_>
        <_>
          <internalNodes>
            0 -1 13 1.3259639963507652e-02</internalNodes>
          <leafValues>
            -5.4873758554458618e-01 7.3326027393341064e-01</leafValues></_>
        <_>
          <internalNodes>
            0 -1 27 1.2009995989501476e-03</internalNodes>
          <leafValues>
            -6.5816670656204224e-01 5.6384676694869995e-01</leafValues></_></weakClassifiers></_>
    <!-- stage 5 -->
    <_>
      <maxWeakCount>3</maxWeakCount>
      <stageThreshold>1.0340560972690582e-01</stageThreshold>
      <weakClassifiers>
        <_>
          <internalNodes>
            0 -1 19 6.3188956119120121e-05</internalNodes>
          <leafValues>
            -8.0677288770675659e-01 7.3620998859405518e-01</leafValues></_>
        <_>
          <internalNodes>
            0 -1 18 1.4322799630463123e-02</internalNodes>
          <leafValues>
            5.5691903829574585e-01 -9.4226115942001343e-01</leafValues></_>
        <_>
          <internalNodes>
            0 -1 1 8.3099678158760071e-03</internalNodes>
          <leafValues>
            3.5325947403907776e-01 -9.3558585643768311e-01</leafValues></_></weakClassifiers></_>
    <!-- stage 6 -->
    <_>
      <maxWeakCount>5</maxWeakCount>
      <stageThreshold>-1.0742491483688354e+00</stageThreshold>
      <weakClassifiers>
        <_>
          <internalNodes>
            0 -1 16 4.8802234232425690e-05</internalNodes>
          <leafValues>
            -7.8633302450180054e-01 7.4355524778366089e-01</leafValues></_>
        <_>
          <internalNodes>
            0 -1 22 1.0370742529630661e-02</internalNodes>
          <leafValues>
            6.4066869020462036e-01 -7.1814507246017456e-01</leafValues></_>
        <_>
          <internalNodes>
            0 -1 25 9.5413908362388611e-02</internalNodes>
          <leafValues>
            -7.6970171928405762e-01 5.7286798954010010e-01</leafValues></_>
        <_>
          <internalNodes>
            0 -1 3 3.9242014288902283e-02</internalNodes>
          <leafValues>
            4.2666846513748169e-01 -8.2730817794799805e-01</leafValues></_>
        <_>
          <internalNodes>
            0 -1 9 1.0520826280117035e-01</internalNodes>
          <leafValues>
            -6.8867635726928711e-01 4.9735054373741150e-01</leafValues></_></weakClassifiers></_>
    <!-- stage 7 -->
    <_>
      <maxWeakCount>3</maxWeakCount>
      <stageThreshold>-8.3500552177429199e-01</stageThreshold>
      <weakClassifiers>
        <_>
          <internalNodes>
            0 -1 14 4.3914198875427246e-02</internalNodes>
          <leafValues>
            8.1687527894973755e-01 -8.6340641975402832e-01</leafValues></_>
        <_>
          <internalNodes>
            0 -1 2 1.0475987568497658e-02</internalNodes>
          <leafValues>
            6.7390680313110352e-01 -8.4535443782806396e-01</leafValues></_>
        <_>
          <internalNodes>
            0 -1 17 4.9562235362827778e-03</internalNodes>
          <leafValues>
            7.0534110069274902e-01 -8.0652636289596558e-01</leafValues></_></weakClassifiers></_></stages>
  <features>
    <_>
      <rects>
        <_>
          0 0 24 33 -1.</_>
        <_>
          8 11 8 11 9.</_></rects>
      <tilted>0</tilted></_>
    <_>
      <rects>
        <_>
          0 3 27 42 -1.</_>
        <_>
          0 24 27 21 2.</_></rects>
      <tilted>0</tilted></_>
    <_>
      <rects>
        <_>
          0 6 16 27 -1.</_>
        <_>
          8 6 8 27 2.</_></rects>
      <tilted>0</tilted></_>
    <_>
      <rects>
        <_>
          0 12 20 23 -1.</_>
        <_>
          10 12 10 23 2.</_></rects>
      <tilted>0</tilted></_>
    <_>
      <rects>
        <_>
          1 9 24 24 -1.</_>
        <_>
          9 9 8 24 3.</_></rects>
      <tilted>0</tilted></_>
    <_>
      <rects>
        <_>
          1 12 25 30 -1.</_>
        <_>
          1 22 25 10 3.</_></rects>
      <tilted>0</tilted></_>
    <_>
      <rects>
        <_>
          1 17 24 16 -1.</_>
        <_>
          1 25 24 8 2.</_></rects>
      <tilted>0</tilted></_>
    <_>
      <rects>
        <_>
          1 22 16 9 -1.</_>
        <_>
          1 25 16 3 3.</_></rects>
      <tilted>0</tilted></_>
    <_>
      <rects>
        <_>
          2 20 12 2 -1.</_>
        <_>
          2 20 6 2 2.</_></rects>
      <tilted>1</tilted></_>
    <_>
      <rects>
        <_>
          3 14 19 30 -1.</_>
        <_>
          3 24 19 10 3.</_></rects>
      <tilted>0</tilted></_>
    <_>
      <rects>
        <_>
          6 0 13 20 -1.</_>
        <_>
          6 10 13 10 2.</_></rects>
      <tilted>0</tilted></_>
    <_>
      <rects>
        <_>
          6 23 13 8 -1.</_>
        <_>
          6 25 13 4 2.</_></rects>
      <tilted>0</tilted></_>
    <_>
      <rects>
        <_>
          7 8 13 8 -1.</_>
        <_>
          7 10 13 4 2.</_></rects>
      <tilted>0</tilted></_>
    <_>
      <rects>
        <_>
          7 12 14 6 -1.</_>
        <_>
          7 15 14 3 2.</_></rects>
      <tilted>0</tilted></_>
    <_>
      <rects>
        <_>
          7 19 13 15 -1.</_>
        <_>
          7 24 13 5 3.</_></rects>
      <tilted>0</tilted></_>
    <_>
      <rects>
        <_>
          9 10 18 27 -1.</_>
        <_>
          9 19 18 9 3.</_></rects>
      <tilted>0</tilted></_>
    <_>
      <rects>
        <_>
          9 24 9 4 -1.</_>
        <_>
          9 25 9 2 2.</_></rects>
      <tilted>0</tilted></_>
    <_>
      <rects>
        <_>
          10 2 12 24 -1.</_>
        <_>
          14 10 4 8 9.</_></rects>
      <tilted>0</tilted></_>
    <_>
      <rects>
        <_>
          10 19 7 12 -1.</_>
        <_>
          10 25 7 6 2.</_></rects>
      <tilted>0</tilted></_>
    <_>
      <rects>
        <_>
          10 24 9 4 -1.</_>
        <_>
          10 25 9 2 2.</_></rects>
      <tilted>0</tilted></_>
    <_>
      <rects>
        <_>
          11 9 16 30 -1.</_>
        <_>
          11 19 16 10 3.</_></rects>
      <tilted>0</tilted></_>
    <_>
      <rects>
        <_>
          11 20 6 6 -1.</_>
        <_>
          11 22 6 2 3.</_></rects>
      <tilted>0</tilted></_>
    <_>
      <rects>
        <_>
          13 0 6 36 -1.</_>
        <_>
          13 9 6 18 2.</_></rects>
      <tilted>0</tilted></_>
    <_>
      <rects>
        <_>
          13 16 13 32 -1.</_>
        <_>
          13 32 13 16 2.</_></rects>
      <tilted>0</tilted></_>
    <_>
      <rects>
        <_>
          13 19 14 26 -1.</_>
        <_>
          13 32 14 13 2.</_></rects>
      <tilted>0</tilted></_>
    <_>
      <rects>
        <_>
          14 7 13 33 -1.</_>
        <_>
          14 18 13 11 3.</_></rects>
      <tilted>0</tilted></_>
    <_>
      <rects>
        <_>
          18 24 8 2 -1.</_>
        <_>
          22 24 4 2 2.</_></rects>
      <tilted>0</tilted></_>
    <_>
      <rects>
        <_>
          19 24 8 1 -1.</_>
        <_>
          23 24 4 1 2.</_></rects>
      <tilted>0</tilted></_>
    <_>
      <rects>
        <_>
          21 19 6 12 -1.</_>
        <_>
          21 19 6 6 2.</_></rects>
      <tilted>1</tilted></_></features></cascade>
=======
    <maxCatCount>256</maxCatCount>
    <featSize>1</featSize></featureParams>
  <stageNum>6</stageNum>
  <stages>
    <!-- stage 0 -->
    <_>
      <maxWeakCount>2</maxWeakCount>
      <stageThreshold>3.4711468964815140e-02</stageThreshold>
      <weakClassifiers>
        <_>
          <internalNodes>
            0 -1 3 -587399169 -170852360 -1 -184541185 -868167683
            -724500489 -33554433 -547618818</internalNodes>
          <leafValues>
            -9.0675240755081177e-01 9.8568505048751831e-01</leafValues></_>
        <_>
          <internalNodes>
            0 -1 5 1427230975 -738115584 1073774813 -251653740
            -2138996536 -2139062144 1082310859 -612335485</internalNodes>
          <leafValues>
            -9.1833567619323730e-01 9.4146388769149780e-01</leafValues></_></weakClassifiers></_>
    <!-- stage 1 -->
    <_>
      <maxWeakCount>2</maxWeakCount>
      <stageThreshold>-2.9494745656847954e-02</stageThreshold>
      <weakClassifiers>
        <_>
          <internalNodes>
            0 -1 2 -803434049 1360007313 9455616 -1726951344 -805265239
            -1870651391 -1996235685 -3620727</internalNodes>
          <leafValues>
            -9.2347824573516846e-01 9.0829271078109741e-01</leafValues></_>
        <_>
          <internalNodes>
            0 -1 7 -34472719 -265158799 -1 -786445 -318767881 -733874185
            -1 -268959745</internalNodes>
          <leafValues>
            -8.5623210668563843e-01 8.9398354291915894e-01</leafValues></_></weakClassifiers></_>
    <!-- stage 2 -->
    <_>
      <maxWeakCount>2</maxWeakCount>
      <stageThreshold>9.0571297332644463e-03</stageThreshold>
      <weakClassifiers>
        <_>
          <internalNodes>
            0 -1 0 -36635649 -34537475 1342305775 -117080065 -1601134374
            -1660878854 -723714054 -2555905</internalNodes>
          <leafValues>
            -8.1161475181579590e-01 8.9187866449356079e-01</leafValues></_>
        <_>
          <internalNodes>
            0 -1 10 -128970536 -1066139520 272629979 -783214571
            1207996667 -491749240 -384966405 -1680533057</internalNodes>
          <leafValues>
            -7.9136186838150024e-01 8.2067185640335083e-01</leafValues></_></weakClassifiers></_>
    <!-- stage 3 -->
    <_>
      <maxWeakCount>2</maxWeakCount>
      <stageThreshold>7.6901651918888092e-02</stageThreshold>
      <weakClassifiers>
        <_>
          <internalNodes>
            0 -1 8 -787365461 -553312255 268435553 822149129 -2013233021
            1744830592 32994 570490891</internalNodes>
          <leafValues>
            -8.6147183179855347e-01 8.9790958166122437e-01</leafValues></_>
        <_>
          <internalNodes>
            0 -1 4 1603214271 -137005743 -6356993 1976661329 235454154
            -335479596 -142540801 -465502211</internalNodes>
          <leafValues>
            -7.5109213590621948e-01 9.3837350606918335e-01</leafValues></_></weakClassifiers></_>
    <!-- stage 4 -->
    <_>
      <maxWeakCount>2</maxWeakCount>
      <stageThreshold>1.3211283087730408e-01</stageThreshold>
      <weakClassifiers>
        <_>
          <internalNodes>
            0 -1 6 65797 671105029 65544 1098973190 159383681 142606336
            524680 -2012479488</internalNodes>
          <leafValues>
            -7.2014474868774414e-01 9.6147841215133667e-01</leafValues></_>
        <_>
          <internalNodes>
            0 -1 1 268456130 67174400 0 -2129592320 134219776 167772160
            134217736 402784257</internalNodes>
          <leafValues>
            -8.2936555147171021e-01 9.1259491443634033e-01</leafValues></_></weakClassifiers></_>
    <!-- stage 5 -->
    <_>
      <maxWeakCount>1</maxWeakCount>
      <stageThreshold>1.</stageThreshold>
      <weakClassifiers>
        <_>
          <internalNodes>
            0 -1 9 268500993 268435456 0 268435457 -2147483648 0 0 128</internalNodes>
          <leafValues>
            -9.8150593042373657e-01 1.</leafValues></_></weakClassifiers></_></stages>
  <features>
    <_>
      <rect>
        0 7 9 11</rect></_>
    <_>
      <rect>
        0 9 7 3</rect></_>
    <_>
      <rect>
        0 10 9 9</rect></_>
    <_>
      <rect>
        0 11 9 9</rect></_>
    <_>
      <rect>
        0 16 8 8</rect></_>
    <_>
      <rect>
        0 21 9 4</rect></_>
    <_>
      <rect>
        1 11 5 10</rect></_>
    <_>
      <rect>
        1 22 8 3</rect></_>
    <_>
      <rect>
        5 20 5 2</rect></_>
    <_>
      <rect>
        6 19 4 3</rect></_>
    <_>
      <rect>
        10 13 4 4</rect></_></features></cascade>
>>>>>>> 94b34fb9a8ac7b3e6440b5ab465d4609b745a7b6
</opencv_storage>
