<?xml version="1.0"?>
<opencv_storage>
<cascade>
  <stageType>BOOST</stageType>
  <featureType>HAAR</featureType>
  <height>36</height>
  <width>24</width>
  <stageParams>
    <boostType>GAB</boostType>
    <minHitRate>9.9500000476837158e-01</minHitRate>
    <maxFalseAlarm>5.0000000000000000e-01</maxFalseAlarm>
    <weightTrimRate>9.4999998807907104e-01</weightTrimRate>
    <maxDepth>1</maxDepth>
    <maxWeakCount>100</maxWeakCount></stageParams>
  <featureParams>
    <maxCatCount>0</maxCatCount>
    <featSize>1</featSize>
    <mode>BASIC</mode></featureParams>
  <stageNum>14</stageNum>
  <stages>
    <!-- stage 0 -->
    <_>
      <maxWeakCount>3</maxWeakCount>
      <stageThreshold>-1.1154019832611084e+00</stageThreshold>
      <weakClassifiers>
        <_>
          <internalNodes>
            0 -1 79 5.0639890134334564e-02</internalNodes>
          <leafValues>
            -8.8235294818878174e-01 3.0109205842018127e-01</leafValues></_>
        <_>
          <internalNodes>
            0 -1 8 -6.4235016703605652e-02</internalNodes>
          <leafValues>
            4.0218049287796021e-01 -8.0045676231384277e-01</leafValues></_>
        <_>
          <internalNodes>
            0 -1 16 -1.8278997391462326e-02</internalNodes>
          <leafValues>
            5.9826105833053589e-01 -6.1603724956512451e-01</leafValues></_></weakClassifiers></_>
    <!-- stage 1 -->
    <_>
      <maxWeakCount>6</maxWeakCount>
      <stageThreshold>-1.5246064662933350e+00</stageThreshold>
      <weakClassifiers>
        <_>
          <internalNodes>
            0 -1 66 -3.6633923649787903e-02</internalNodes>
          <leafValues>
            6.1823362112045288e-01 -7.4603176116943359e-01</leafValues></_>
        <_>
          <internalNodes>
            0 -1 15 1.1238847672939301e-01</internalNodes>
          <leafValues>
            -8.0279761552810669e-01 3.1790900230407715e-01</leafValues></_>
        <_>
          <internalNodes>
            0 -1 94 9.4953961670398712e-03</internalNodes>
          <leafValues>
            -6.3024473190307617e-01 4.6161931753158569e-01</leafValues></_>
        <_>
          <internalNodes>
            0 -1 92 -2.5278609246015549e-03</internalNodes>
          <leafValues>
            4.7428917884826660e-01 -5.5571269989013672e-01</leafValues></_>
        <_>
          <internalNodes>
            0 -1 26 2.0708017982542515e-03</internalNodes>
          <leafValues>
            -3.9170232415199280e-01 6.2528097629547119e-01</leafValues></_>
        <_>
          <internalNodes>
            0 -1 19 -4.3271789327263832e-03</internalNodes>
          <leafValues>
            5.7562279701232910e-01 -5.3580737113952637e-01</leafValues></_></weakClassifiers></_>
    <!-- stage 2 -->
    <_>
      <maxWeakCount>6</maxWeakCount>
      <stageThreshold>-1.2001496553421021e+00</stageThreshold>
      <weakClassifiers>
        <_>
          <internalNodes>
            0 -1 23 1.5846319496631622e-02</internalNodes>
          <leafValues>
            -7.9691517353057861e-01 3.7903225421905518e-01</leafValues></_>
        <_>
          <internalNodes>
            0 -1 22 3.2057240605354309e-03</internalNodes>
          <leafValues>
            -5.8255124092102051e-01 4.4649815559387207e-01</leafValues></_>
        <_>
          <internalNodes>
            0 -1 54 -8.3693742752075195e-02</internalNodes>
          <leafValues>
            5.4797238111495972e-01 -4.6307417750358582e-01</leafValues></_>
        <_>
          <internalNodes>
            0 -1 77 -5.2908672951161861e-03</internalNodes>
          <leafValues>
            4.5356318354606628e-01 -5.2980536222457886e-01</leafValues></_>
        <_>
          <internalNodes>
            0 -1 107 1.4104024507105350e-02</internalNodes>
          <leafValues>
            -3.4143564105033875e-01 6.8718904256820679e-01</leafValues></_>
        <_>
          <internalNodes>
            0 -1 29 -8.5574276745319366e-03</internalNodes>
          <leafValues>
            5.3026342391967773e-01 -4.1811403632164001e-01</leafValues></_></weakClassifiers></_>
    <!-- stage 3 -->
    <_>
      <maxWeakCount>7</maxWeakCount>
      <stageThreshold>-2.0168690681457520e+00</stageThreshold>
      <weakClassifiers>
        <_>
          <internalNodes>
            0 -1 6 1.4397364109754562e-02</internalNodes>
          <leafValues>
            -7.9147541522979736e-01 2.9411765933036804e-01</leafValues></_>
        <_>
          <internalNodes>
            0 -1 84 1.1783709749579430e-02</internalNodes>
          <leafValues>
            -4.9126756191253662e-01 4.9493646621704102e-01</leafValues></_>
        <_>
          <internalNodes>
            0 -1 100 5.0720799714326859e-02</internalNodes>
          <leafValues>
            -7.5902003049850464e-01 3.1723749637603760e-01</leafValues></_>
        <_>
          <internalNodes>
            0 -1 42 -1.1419588699936867e-02</internalNodes>
          <leafValues>
            2.5402161478996277e-01 -8.0621033906936646e-01</leafValues></_>
        <_>
          <internalNodes>
            0 -1 99 -8.2306447438895702e-04</internalNodes>
          <leafValues>
            5.0477784872055054e-01 -4.2094412446022034e-01</leafValues></_>
        <_>
          <internalNodes>
            0 -1 7 -2.1567119285464287e-02</internalNodes>
          <leafValues>
            4.2168036103248596e-01 -4.1402003169059753e-01</leafValues></_>
        <_>
          <internalNodes>
            0 -1 53 -1.5083741163834929e-03</internalNodes>
          <leafValues>
            4.1004815697669983e-01 -4.7042101621627808e-01</leafValues></_></weakClassifiers></_>
    <!-- stage 4 -->
    <_>
      <maxWeakCount>8</maxWeakCount>
      <stageThreshold>-1.4970426559448242e+00</stageThreshold>
      <weakClassifiers>
        <_>
          <internalNodes>
            0 -1 98 -1.4560457319021225e-02</internalNodes>
          <leafValues>
            2.1807464957237244e-01 -7.5372648239135742e-01</leafValues></_>
        <_>
          <internalNodes>
            0 -1 31 -4.2883013375103474e-03</internalNodes>
          <leafValues>
            3.3499267697334290e-01 -5.5347514152526855e-01</leafValues></_>
        <_>
          <internalNodes>
            0 -1 45 1.5815913677215576e-02</internalNodes>
          <leafValues>
            -6.2058210372924805e-01 3.0477666854858398e-01</leafValues></_>
        <_>
          <internalNodes>
            0 -1 17 2.2841775789856911e-03</internalNodes>
          <leafValues>
            -7.3243349790573120e-01 2.1312250196933746e-01</leafValues></_>
        <_>
          <internalNodes>
            0 -1 89 -1.5098941512405872e-03</internalNodes>
          <leafValues>
            4.1593107581138611e-01 -4.0020218491554260e-01</leafValues></_>
        <_>
          <internalNodes>
            0 -1 55 2.9654465615749359e-03</internalNodes>
          <leafValues>
            -4.5531439781188965e-01 3.5706925392150879e-01</leafValues></_>
        <_>
          <internalNodes>
            0 -1 48 2.0388429984450340e-03</internalNodes>
          <leafValues>
            -3.7425449490547180e-01 4.6576887369155884e-01</leafValues></_>
        <_>
          <internalNodes>
            0 -1 108 -1.3041422702372074e-02</internalNodes>
          <leafValues>
            5.7373648881912231e-01 -2.8110146522521973e-01</leafValues></_></weakClassifiers></_>
    <!-- stage 5 -->
    <_>
      <maxWeakCount>7</maxWeakCount>
      <stageThreshold>-1.3395066261291504e+00</stageThreshold>
      <weakClassifiers>
        <_>
          <internalNodes>
            0 -1 4 1.0393422096967697e-02</internalNodes>
          <leafValues>
            -7.9092156887054443e-01 1.6387960314750671e-01</leafValues></_>
        <_>
          <internalNodes>
            0 -1 51 1.1498464271426201e-02</internalNodes>
          <leafValues>
            -5.3659158945083618e-01 3.6295557022094727e-01</leafValues></_>
        <_>
          <internalNodes>
            0 -1 68 7.6063863933086395e-02</internalNodes>
          <leafValues>
            -4.8030704259872437e-01 4.0059825778007507e-01</leafValues></_>
        <_>
          <internalNodes>
            0 -1 82 -3.4392368979752064e-03</internalNodes>
          <leafValues>
            6.9548642635345459e-01 -2.1690461039543152e-01</leafValues></_>
        <_>
          <internalNodes>
            0 -1 96 1.7868475988507271e-03</internalNodes>
          <leafValues>
            -5.2629131078720093e-01 3.1531843543052673e-01</leafValues></_>
        <_>
          <internalNodes>
            0 -1 30 -8.4386001617531292e-06</internalNodes>
          <leafValues>
            3.7189504504203796e-01 -4.3190664052963257e-01</leafValues></_>
        <_>
          <internalNodes>
            0 -1 62 -6.7054089158773422e-03</internalNodes>
          <leafValues>
            -8.8290053606033325e-01 2.0615884661674500e-01</leafValues></_></weakClassifiers></_>
    <!-- stage 6 -->
    <_>
      <maxWeakCount>7</maxWeakCount>
      <stageThreshold>-1.2314218282699585e+00</stageThreshold>
      <weakClassifiers>
        <_>
          <internalNodes>
            0 -1 1 1.4823582023382187e-02</internalNodes>
          <leafValues>
            -8.0568009614944458e-01 3.6414567381143570e-02</leafValues></_>
        <_>
          <internalNodes>
            0 -1 75 1.6913045197725296e-02</internalNodes>
          <leafValues>
            -5.1401680707931519e-01 3.8842272758483887e-01</leafValues></_>
        <_>
          <internalNodes>
            0 -1 90 -4.7652371227741241e-02</internalNodes>
          <leafValues>
            6.8242979049682617e-01 -2.7267941832542419e-01</leafValues></_>
        <_>
          <internalNodes>
            0 -1 40 -2.0575225353240967e-01</internalNodes>
          <leafValues>
            -9.8020941019058228e-01 1.9139115512371063e-01</leafValues></_>
        <_>
          <internalNodes>
            0 -1 73 -5.4587163031101227e-03</internalNodes>
          <leafValues>
            3.8198766112327576e-01 -5.0490504503250122e-01</leafValues></_>
        <_>
          <internalNodes>
            0 -1 14 5.1867350935935974e-02</internalNodes>
          <leafValues>
            -8.5121870040893555e-01 1.8642707169055939e-01</leafValues></_>
        <_>
          <internalNodes>
            0 -1 86 -3.5849448759108782e-03</internalNodes>
          <leafValues>
            5.9196954965591431e-01 -2.7151674032211304e-01</leafValues></_></weakClassifiers></_>
    <!-- stage 7 -->
    <_>
      <maxWeakCount>9</maxWeakCount>
      <stageThreshold>-1.4180516004562378e+00</stageThreshold>
      <weakClassifiers>
        <_>
          <internalNodes>
            0 -1 67 -3.1395055353641510e-02</internalNodes>
          <leafValues>
            5.3658539056777954e-01 -7.1229696273803711e-01</leafValues></_>
        <_>
          <internalNodes>
            0 -1 105 -1.2683247914537787e-03</internalNodes>
          <leafValues>
            3.5796210169792175e-01 -5.5035096406936646e-01</leafValues></_>
        <_>
          <internalNodes>
            0 -1 32 -9.3049883842468262e-02</internalNodes>
          <leafValues>
            2.4651028215885162e-01 -5.8148878812789917e-01</leafValues></_>
        <_>
          <internalNodes>
            0 -1 70 5.4484196007251740e-03</internalNodes>
          <leafValues>
            2.7771800756454468e-01 -5.5321568250656128e-01</leafValues></_>
        <_>
          <internalNodes>
            0 -1 65 -5.7889270829036832e-04</internalNodes>
          <leafValues>
            4.8313942551612854e-01 -2.9994040727615356e-01</leafValues></_>
        <_>
          <internalNodes>
            0 -1 103 -1.0707438923418522e-02</internalNodes>
          <leafValues>
            7.6489907503128052e-01 -2.2489717602729797e-01</leafValues></_>
        <_>
          <internalNodes>
            0 -1 20 2.7692236006259918e-02</internalNodes>
          <leafValues>
            -1.5193358063697815e-01 7.9551339149475098e-01</leafValues></_>
        <_>
          <internalNodes>
            0 -1 93 -1.6773904208093882e-03</internalNodes>
          <leafValues>
            4.3837702274322510e-01 -3.8777446746826172e-01</leafValues></_>
        <_>
          <internalNodes>
            0 -1 44 -4.5602768659591675e-02</internalNodes>
          <leafValues>
            4.3276754021644592e-01 -3.9599707722663879e-01</leafValues></_></weakClassifiers></_>
    <!-- stage 8 -->
    <_>
      <maxWeakCount>9</maxWeakCount>
      <stageThreshold>-1.3749598264694214e+00</stageThreshold>
      <weakClassifiers>
        <_>
          <internalNodes>
            0 -1 43 1.5705887228250504e-02</internalNodes>
          <leafValues>
            -7.4489796161651611e-01 2.3966942727565765e-01</leafValues></_>
        <_>
          <internalNodes>
            0 -1 88 -2.4552486836910248e-02</internalNodes>
          <leafValues>
            4.4241628050804138e-01 -4.4932809472084045e-01</leafValues></_>
        <_>
          <internalNodes>
            0 -1 27 -8.0183362588286400e-03</internalNodes>
          <leafValues>
            -9.3146526813507080e-01 1.4884552359580994e-01</leafValues></_>
        <_>
          <internalNodes>
            0 -1 57 -2.6269615627825260e-03</internalNodes>
          <leafValues>
            3.2991740107536316e-01 -4.7957921028137207e-01</leafValues></_>
        <_>
          <internalNodes>
            0 -1 101 1.8986761569976807e-02</internalNodes>
          <leafValues>
            -3.2513767480850220e-01 4.8462846875190735e-01</leafValues></_>
        <_>
          <internalNodes>
            0 -1 91 5.4544515907764435e-02</internalNodes>
          <leafValues>
            -2.1167132258415222e-01 7.3170351982116699e-01</leafValues></_>
        <_>
          <internalNodes>
            0 -1 18 5.0990935415029526e-04</internalNodes>
          <leafValues>
            -8.8768327236175537e-01 1.9967059791088104e-01</leafValues></_>
        <_>
          <internalNodes>
            0 -1 10 -7.5627947226166725e-03</internalNodes>
          <leafValues>
            3.7542656064033508e-01 -4.2868757247924805e-01</leafValues></_>
        <_>
          <internalNodes>
            0 -1 41 8.5004679858684540e-03</internalNodes>
          <leafValues>
            1.7631307244300842e-01 -7.8541517257690430e-01</leafValues></_></weakClassifiers></_>
    <!-- stage 9 -->
    <_>
      <maxWeakCount>6</maxWeakCount>
      <stageThreshold>-1.1561527252197266e+00</stageThreshold>
      <weakClassifiers>
        <_>
          <internalNodes>
            0 -1 5 3.2156925648450851e-02</internalNodes>
          <leafValues>
            -7.1445494890213013e-01 4.2307692766189575e-01</leafValues></_>
        <_>
          <internalNodes>
            0 -1 78 7.6772486791014671e-03</internalNodes>
          <leafValues>
            -5.6473988294601440e-01 3.1718581914901733e-01</leafValues></_>
        <_>
          <internalNodes>
            0 -1 97 -4.7604722203686833e-04</internalNodes>
          <leafValues>
            3.2173821330070496e-01 -4.3515750765800476e-01</leafValues></_>
        <_>
          <internalNodes>
            0 -1 60 -6.3709393143653870e-03</internalNodes>
          <leafValues>
            -9.8978829383850098e-01 1.3955339789390564e-01</leafValues></_>
        <_>
          <internalNodes>
            0 -1 50 5.3701899945735931e-02</internalNodes>
          <leafValues>
            1.2175767868757248e-01 -9.7397768497467041e-01</leafValues></_>
        <_>
          <internalNodes>
            0 -1 36 -5.1198345609009266e-03</internalNodes>
          <leafValues>
            2.9688858985900879e-01 -3.9101809263229370e-01</leafValues></_></weakClassifiers></_>
    <!-- stage 10 -->
    <_>
      <maxWeakCount>10</maxWeakCount>
      <stageThreshold>-1.8979861736297607e+00</stageThreshold>
      <weakClassifiers>
        <_>
          <internalNodes>
            0 -1 59 -5.3208045661449432e-02</internalNodes>
          <leafValues>
            6.2025314569473267e-01 -7.1889400482177734e-01</leafValues></_>
        <_>
          <internalNodes>
            0 -1 33 -1.9116642652079463e-03</internalNodes>
          <leafValues>
            4.9249047040939331e-01 -4.4900038838386536e-01</leafValues></_>
        <_>
          <internalNodes>
            0 -1 83 -1.2563293799757957e-02</internalNodes>
          <leafValues>
            3.1496775150299072e-01 -5.1065498590469360e-01</leafValues></_>
        <_>
          <internalNodes>
            0 -1 80 1.1759672779589891e-03</internalNodes>
          <leafValues>
            -3.2173502445220947e-01 4.7446575760841370e-01</leafValues></_>
        <_>
          <internalNodes>
            0 -1 34 -7.1639366447925568e-02</internalNodes>
          <leafValues>
            5.4378169775009155e-01 -2.4972817301750183e-01</leafValues></_>
        <_>
          <internalNodes>
            0 -1 39 1.1053036898374557e-02</internalNodes>
          <leafValues>
            -2.7485409379005432e-01 5.2941483259201050e-01</leafValues></_>
        <_>
          <internalNodes>
            0 -1 74 -6.0602143639698625e-04</internalNodes>
          <leafValues>
            4.2223545908927917e-01 -3.9830493927001953e-01</leafValues></_>
        <_>
          <internalNodes>
            0 -1 102 8.7810102850198746e-03</internalNodes>
          <leafValues>
            -2.1494665741920471e-01 5.3099089860916138e-01</leafValues></_>
        <_>
          <internalNodes>
            0 -1 71 3.6240834742784500e-02</internalNodes>
          <leafValues>
            -1.4347080886363983e-01 7.9370570182800293e-01</leafValues></_>
        <_>
          <internalNodes>
            0 -1 0 5.4843127727508545e-02</internalNodes>
          <leafValues>
            -2.4120642244815826e-01 4.7913461923599243e-01</leafValues></_></weakClassifiers></_>
    <!-- stage 11 -->
    <_>
      <maxWeakCount>7</maxWeakCount>
      <stageThreshold>-1.4758251905441284e+00</stageThreshold>
      <weakClassifiers>
        <_>
          <internalNodes>
            0 -1 56 1.7267573624849319e-02</internalNodes>
          <leafValues>
            -7.6341307163238525e-01 2.5544553995132446e-01</leafValues></_>
        <_>
          <internalNodes>
            0 -1 2 1.9609309732913971e-02</internalNodes>
          <leafValues>
            -4.7402241826057434e-01 3.8648167252540588e-01</leafValues></_>
        <_>
          <internalNodes>
            0 -1 21 1.1691637337207794e-02</internalNodes>
          <leafValues>
            -5.1920318603515625e-01 3.2820394635200500e-01</leafValues></_>
        <_>
          <internalNodes>
            0 -1 58 1.1507481336593628e-02</internalNodes>
          <leafValues>
            1.7500884830951691e-01 -7.0533585548400879e-01</leafValues></_>
        <_>
          <internalNodes>
            0 -1 24 3.3261109143495560e-02</internalNodes>
          <leafValues>
            1.5485537052154541e-01 -9.5398652553558350e-01</leafValues></_>
        <_>
          <internalNodes>
            0 -1 64 -1.0692583164200187e-03</internalNodes>
          <leafValues>
            2.6107192039489746e-01 -4.4745913147926331e-01</leafValues></_>
        <_>
          <internalNodes>
            0 -1 95 7.1093901991844177e-02</internalNodes>
          <leafValues>
            -3.1012269854545593e-01 5.2856308221817017e-01</leafValues></_></weakClassifiers></_>
    <!-- stage 12 -->
    <_>
      <maxWeakCount>11</maxWeakCount>
      <stageThreshold>-1.6173293590545654e+00</stageThreshold>
      <weakClassifiers>
        <_>
          <internalNodes>
            0 -1 9 -1.1757686734199524e-01</internalNodes>
          <leafValues>
            3.8875305652618408e-01 -7.3706632852554321e-01</leafValues></_>
        <_>
          <internalNodes>
            0 -1 63 -1.1487264186143875e-02</internalNodes>
          <leafValues>
            6.0145539045333862e-01 -3.9070451259613037e-01</leafValues></_>
        <_>
          <internalNodes>
            0 -1 61 -4.2527221143245697e-02</internalNodes>
          <leafValues>
            6.0777163505554199e-01 -2.2401726245880127e-01</leafValues></_>
        <_>
          <internalNodes>
            0 -1 52 -1.5917070209980011e-02</internalNodes>
          <leafValues>
            -7.7859991788864136e-01 1.7972980439662933e-01</leafValues></_>
        <_>
          <internalNodes>
            0 -1 69 -1.9462672062218189e-03</internalNodes>
          <leafValues>
            -9.6292781829833984e-01 1.3291668891906738e-01</leafValues></_>
        <_>
          <internalNodes>
            0 -1 11 1.7354110255837440e-02</internalNodes>
          <leafValues>
            -2.1737866103649139e-01 6.0866320133209229e-01</leafValues></_>
        <_>
          <internalNodes>
            0 -1 28 -1.3687409460544586e-01</internalNodes>
          <leafValues>
            4.8714715242385864e-01 -3.1545114517211914e-01</leafValues></_>
        <_>
          <internalNodes>
            0 -1 38 1.5513639897108078e-02</internalNodes>
          <leafValues>
            -1.5560482442378998e-01 9.1714322566986084e-01</leafValues></_>
        <_>
          <internalNodes>
            0 -1 87 -4.0239114314317703e-02</internalNodes>
          <leafValues>
            -8.7714719772338867e-01 1.7753538489341736e-01</leafValues></_>
        <_>
          <internalNodes>
            0 -1 37 -5.4041696712374687e-03</internalNodes>
          <leafValues>
            4.9922615289688110e-01 -2.4212041497230530e-01</leafValues></_>
        <_>
          <internalNodes>
            0 -1 13 -7.5709968805313110e-03</internalNodes>
          <leafValues>
            -8.4878969192504883e-01 1.7483195662498474e-01</leafValues></_></weakClassifiers></_>
    <!-- stage 13 -->
    <_>
      <maxWeakCount>13</maxWeakCount>
      <stageThreshold>-1.4425016641616821e+00</stageThreshold>
      <weakClassifiers>
        <_>
          <internalNodes>
            0 -1 25 -1.1336344480514526e-01</internalNodes>
          <leafValues>
            3.1639721989631653e-01 -7.3440396785736084e-01</leafValues></_>
        <_>
          <internalNodes>
            0 -1 12 6.2788827344775200e-03</internalNodes>
          <leafValues>
            -4.7736972570419312e-01 3.4828147292137146e-01</leafValues></_>
        <_>
          <internalNodes>
            0 -1 49 -2.0862944424152374e-02</internalNodes>
          <leafValues>
            2.7507415413856506e-01 -4.5683670043945313e-01</leafValues></_>
        <_>
          <internalNodes>
            0 -1 72 -1.2297133915126324e-02</internalNodes>
          <leafValues>
            2.7837577462196350e-01 -5.0471395254135132e-01</leafValues></_>
        <_>
          <internalNodes>
            0 -1 46 2.4781014770269394e-02</internalNodes>
          <leafValues>
            1.3952133059501648e-01 -1.</leafValues></_>
        <_>
          <internalNodes>
            0 -1 47 5.0332369282841682e-03</internalNodes>
          <leafValues>
            -1.5510112047195435e-01 8.4188294410705566e-01</leafValues></_>
        <_>
          <internalNodes>
            0 -1 35 -1.2342189438641071e-02</internalNodes>
          <leafValues>
            3.6977174878120422e-01 -3.3569651842117310e-01</leafValues></_>
        <_>
          <internalNodes>
            0 -1 81 -5.2944011986255646e-04</internalNodes>
          <leafValues>
            3.4889629483222961e-01 -3.7826639413833618e-01</leafValues></_>
        <_>
          <internalNodes>
            0 -1 76 -1.8082402675645426e-05</internalNodes>
          <leafValues>
            3.1964650750160217e-01 -3.8795545697212219e-01</leafValues></_>
        <_>
          <internalNodes>
            0 -1 104 -2.8403904289007187e-03</internalNodes>
          <leafValues>
            4.9459901452064514e-01 -2.3701067268848419e-01</leafValues></_>
        <_>
          <internalNodes>
            0 -1 3 -8.5169249359751120e-06</internalNodes>
          <leafValues>
            3.5020056366920471e-01 -3.4301707148551941e-01</leafValues></_>
        <_>
          <internalNodes>
            0 -1 85 2.9743287712335587e-02</internalNodes>
          <leafValues>
            -1.9661931693553925e-01 6.4950305223464966e-01</leafValues></_>
        <_>
          <internalNodes>
            0 -1 106 2.5852743536233902e-02</internalNodes>
          <leafValues>
            -2.7936431765556335e-01 4.8028799891471863e-01</leafValues></_></weakClassifiers></_></stages>
  <features>
    <_>
      <rects>
        <_>
          0 2 22 24 -1.</_>
        <_>
          0 14 22 12 2.</_></rects>
      <tilted>0</tilted></_>
    <_>
      <rects>
        <_>
          0 3 15 3 -1.</_>
        <_>
          5 3 5 3 3.</_></rects>
      <tilted>0</tilted></_>
    <_>
      <rects>
        <_>
          0 4 15 3 -1.</_>
        <_>
          5 4 5 3 3.</_></rects>
      <tilted>0</tilted></_>
    <_>
      <rects>
        <_>
          0 6 1 3 -1.</_>
        <_>
          0 7 1 1 3.</_></rects>
      <tilted>0</tilted></_>
    <_>
      <rects>
        <_>
          0 6 4 10 -1.</_>
        <_>
          2 6 2 10 2.</_></rects>
      <tilted>0</tilted></_>
    <_>
      <rects>
        <_>
          0 6 4 24 -1.</_>
        <_>
          2 6 2 24 2.</_></rects>
      <tilted>0</tilted></_>
    <_>
      <rects>
        <_>
          0 8 4 16 -1.</_>
        <_>
          2 8 2 16 2.</_></rects>
      <tilted>0</tilted></_>
    <_>
      <rects>
        <_>
          0 9 8 18 -1.</_>
        <_>
          0 9 4 9 2.</_>
        <_>
          4 18 4 9 2.</_></rects>
      <tilted>0</tilted></_>
    <_>
      <rects>
        <_>
          0 10 19 18 -1.</_>
        <_>
          0 16 19 6 3.</_></rects>
      <tilted>0</tilted></_>
    <_>
      <rects>
        <_>
          0 10 22 12 -1.</_>
        <_>
          0 16 22 6 2.</_></rects>
      <tilted>0</tilted></_>
    <_>
      <rects>
        <_>
          0 11 6 16 -1.</_>
        <_>
          0 11 3 8 2.</_>
        <_>
          3 19 3 8 2.</_></rects>
      <tilted>0</tilted></_>
    <_>
      <rects>
        <_>
          0 12 4 17 -1.</_>
        <_>
          2 12 2 17 2.</_></rects>
      <tilted>0</tilted></_>
    <_>
      <rects>
        <_>
          0 14 6 4 -1.</_>
        <_>
          3 14 3 4 2.</_></rects>
      <tilted>0</tilted></_>
    <_>
      <rects>
        <_>
          0 15 1 21 -1.</_>
        <_>
          0 22 1 7 3.</_></rects>
      <tilted>0</tilted></_>
    <_>
      <rects>
        <_>
          0 16 24 16 -1.</_>
        <_>
          0 24 24 8 2.</_></rects>
      <tilted>0</tilted></_>
    <_>
      <rects>
        <_>
          0 16 24 20 -1.</_>
        <_>
          0 26 24 10 2.</_></rects>
      <tilted>0</tilted></_>
    <_>
      <rects>
        <_>
          0 17 12 12 -1.</_>
        <_>
          0 17 6 6 2.</_>
        <_>
          6 23 6 6 2.</_></rects>
      <tilted>0</tilted></_>
    <_>
      <rects>
        <_>
          0 18 5 8 -1.</_>
        <_>
          0 22 5 4 2.</_></rects>
      <tilted>0</tilted></_>
    <_>
      <rects>
        <_>
          0 20 23 4 -1.</_>
        <_>
          0 22 23 2 2.</_></rects>
      <tilted>0</tilted></_>
    <_>
      <rects>
        <_>
          0 27 12 1 -1.</_>
        <_>
          6 27 6 1 2.</_></rects>
      <tilted>0</tilted></_>
    <_>
      <rects>
        <_>
          0 32 21 4 -1.</_>
        <_>
          7 32 7 4 3.</_></rects>
      <tilted>0</tilted></_>
    <_>
      <rects>
        <_>
          1 3 21 8 -1.</_>
        <_>
          1 7 21 4 2.</_></rects>
      <tilted>0</tilted></_>
    <_>
      <rects>
        <_>
          1 4 4 6 -1.</_>
        <_>
          3 4 2 6 2.</_></rects>
      <tilted>0</tilted></_>
    <_>
      <rects>
        <_>
          1 6 4 12 -1.</_>
        <_>
          1 10 4 4 3.</_></rects>
      <tilted>0</tilted></_>
    <_>
      <rects>
        <_>
          1 9 20 10 -1.</_>
        <_>
          1 9 10 5 2.</_>
        <_>
          11 14 10 5 2.</_></rects>
      <tilted>0</tilted></_>
    <_>
      <rects>
        <_>
          1 10 20 14 -1.</_>
        <_>
          1 17 20 7 2.</_></rects>
      <tilted>0</tilted></_>
    <_>
      <rects>
        <_>
          1 14 4 5 -1.</_>
        <_>
          3 14 2 5 2.</_></rects>
      <tilted>0</tilted></_>
    <_>
      <rects>
        <_>
          1 14 22 4 -1.</_>
        <_>
          1 14 11 2 2.</_>
        <_>
          12 16 11 2 2.</_></rects>
      <tilted>0</tilted></_>
    <_>
      <rects>
        <_>
          1 17 21 14 -1.</_>
        <_>
          8 17 7 14 3.</_></rects>
      <tilted>0</tilted></_>
    <_>
      <rects>
        <_>
          1 27 12 2 -1.</_>
        <_>
          7 27 6 2 2.</_></rects>
      <tilted>0</tilted></_>
    <_>
      <rects>
        <_>
          1 32 2 1 -1.</_>
        <_>
          2 32 1 1 2.</_></rects>
      <tilted>0</tilted></_>
    <_>
      <rects>
        <_>
          2 7 10 6 -1.</_>
        <_>
          2 7 5 3 2.</_>
        <_>
          7 10 5 3 2.</_></rects>
      <tilted>0</tilted></_>
    <_>
      <rects>
        <_>
          2 8 15 27 -1.</_>
        <_>
          2 17 15 9 3.</_></rects>
      <tilted>0</tilted></_>
    <_>
      <rects>
        <_>
          2 12 2 4 -1.</_>
        <_>
          2 14 2 2 2.</_></rects>
      <tilted>0</tilted></_>
    <_>
      <rects>
        <_>
          2 17 21 7 -1.</_>
        <_>
          9 17 7 7 3.</_></rects>
      <tilted>0</tilted></_>
    <_>
      <rects>
        <_>
          2 19 16 14 -1.</_>
        <_>
          2 19 8 7 2.</_>
        <_>
          10 26 8 7 2.</_></rects>
      <tilted>0</tilted></_>
    <_>
      <rects>
        <_>
          2 21 4 15 -1.</_>
        <_>
          4 21 2 15 2.</_></rects>
      <tilted>0</tilted></_>
    <_>
      <rects>
        <_>
          2 23 6 12 -1.</_>
        <_>
          2 23 3 6 2.</_>
        <_>
          5 29 3 6 2.</_></rects>
      <tilted>0</tilted></_>
    <_>
      <rects>
        <_>
          2 35 15 1 -1.</_>
        <_>
          7 35 5 1 3.</_></rects>
      <tilted>0</tilted></_>
    <_>
      <rects>
        <_>
          3 0 10 22 -1.</_>
        <_>
          3 0 5 11 2.</_>
        <_>
          8 11 5 11 2.</_></rects>
      <tilted>0</tilted></_>
    <_>
      <rects>
        <_>
          3 6 16 24 -1.</_>
        <_>
          3 14 16 8 3.</_></rects>
      <tilted>0</tilted></_>
    <_>
      <rects>
        <_>
          3 7 5 14 -1.</_>
        <_>
          3 14 5 7 2.</_></rects>
      <tilted>0</tilted></_>
    <_>
      <rects>
        <_>
          3 9 13 18 -1.</_>
        <_>
          3 15 13 6 3.</_></rects>
      <tilted>0</tilted></_>
    <_>
      <rects>
        <_>
          3 9 16 6 -1.</_>
        <_>
          3 11 16 2 3.</_></rects>
      <tilted>0</tilted></_>
    <_>
      <rects>
        <_>
          3 18 12 16 -1.</_>
        <_>
          9 18 6 16 2.</_></rects>
      <tilted>0</tilted></_>
    <_>
      <rects>
        <_>
          3 28 21 8 -1.</_>
        <_>
          3 32 21 4 2.</_></rects>
      <tilted>0</tilted></_>
    <_>
      <rects>
        <_>
          4 2 6 17 -1.</_>
        <_>
          6 2 2 17 3.</_></rects>
      <tilted>0</tilted></_>
    <_>
      <rects>
        <_>
          4 35 6 1 -1.</_>
        <_>
          7 35 3 1 2.</_></rects>
      <tilted>0</tilted></_>
    <_>
      <rects>
        <_>
          5 16 4 9 -1.</_>
        <_>
          7 16 2 9 2.</_></rects>
      <tilted>0</tilted></_>
    <_>
      <rects>
        <_>
          5 22 18 4 -1.</_>
        <_>
          11 22 6 4 3.</_></rects>
      <tilted>0</tilted></_>
    <_>
      <rects>
        <_>
          6 1 14 12 -1.</_>
        <_>
          6 1 7 6 2.</_>
        <_>
          13 7 7 6 2.</_></rects>
      <tilted>0</tilted></_>
    <_>
      <rects>
        <_>
          6 4 16 8 -1.</_>
        <_>
          6 4 8 4 2.</_>
        <_>
          14 8 8 4 2.</_></rects>
      <tilted>0</tilted></_>
    <_>
      <rects>
        <_>
          6 11 14 2 -1.</_>
        <_>
          13 11 7 2 2.</_></rects>
      <tilted>0</tilted></_>
    <_>
      <rects>
        <_>
          6 12 10 6 -1.</_>
        <_>
          6 12 5 3 2.</_>
        <_>
          11 15 5 3 2.</_></rects>
      <tilted>0</tilted></_>
    <_>
      <rects>
        <_>
          6 17 18 13 -1.</_>
        <_>
          12 17 6 13 3.</_></rects>
      <tilted>0</tilted></_>
    <_>
      <rects>
        <_>
          6 18 16 6 -1.</_>
        <_>
          6 18 8 3 2.</_>
        <_>
          14 21 8 3 2.</_></rects>
      <tilted>0</tilted></_>
    <_>
      <rects>
        <_>
          7 4 16 8 -1.</_>
        <_>
          7 4 8 4 2.</_>
        <_>
          15 8 8 4 2.</_></rects>
      <tilted>0</tilted></_>
    <_>
      <rects>
        <_>
          7 11 8 8 -1.</_>
        <_>
          7 11 4 4 2.</_>
        <_>
          11 15 4 4 2.</_></rects>
      <tilted>0</tilted></_>
    <_>
      <rects>
        <_>
          7 20 9 6 -1.</_>
        <_>
          7 23 9 3 2.</_></rects>
      <tilted>0</tilted></_>
    <_>
      <rects>
        <_>
          8 0 16 8 -1.</_>
        <_>
          8 0 8 4 2.</_>
        <_>
          16 4 8 4 2.</_></rects>
      <tilted>0</tilted></_>
    <_>
      <rects>
        <_>
          8 15 5 6 -1.</_>
        <_>
          8 17 5 2 3.</_></rects>
      <tilted>0</tilted></_>
    <_>
      <rects>
        <_>
          8 17 8 14 -1.</_>
        <_>
          12 17 4 14 2.</_></rects>
      <tilted>0</tilted></_>
    <_>
      <rects>
        <_>
          8 19 11 8 -1.</_>
        <_>
          8 23 11 4 2.</_></rects>
      <tilted>0</tilted></_>
    <_>
      <rects>
        <_>
          9 1 14 4 -1.</_>
        <_>
          9 1 7 2 2.</_>
        <_>
          16 3 7 2 2.</_></rects>
      <tilted>0</tilted></_>
    <_>
      <rects>
        <_>
          9 9 10 1 -1.</_>
        <_>
          14 9 5 1 2.</_></rects>
      <tilted>0</tilted></_>
    <_>
      <rects>
        <_>
          9 35 4 1 -1.</_>
        <_>
          11 35 2 1 2.</_></rects>
      <tilted>0</tilted></_>
    <_>
      <rects>
        <_>
          10 0 14 8 -1.</_>
        <_>
          10 0 7 4 2.</_>
        <_>
          17 4 7 4 2.</_></rects>
      <tilted>0</tilted></_>
    <_>
      <rects>
        <_>
          10 1 14 6 -1.</_>
        <_>
          10 1 7 3 2.</_>
        <_>
          17 4 7 3 2.</_></rects>
      <tilted>0</tilted></_>
    <_>
      <rects>
        <_>
          10 7 14 26 -1.</_>
        <_>
          10 7 7 13 2.</_>
        <_>
          17 20 7 13 2.</_></rects>
      <tilted>0</tilted></_>
    <_>
      <rects>
        <_>
          10 14 4 3 -1.</_>
        <_>
          10 15 4 1 3.</_></rects>
      <tilted>0</tilted></_>
    <_>
      <rects>
        <_>
          10 22 6 6 -1.</_>
        <_>
          10 25 6 3 2.</_></rects>
      <tilted>0</tilted></_>
    <_>
      <rects>
        <_>
          10 28 5 8 -1.</_>
        <_>
          10 32 5 4 2.</_></rects>
      <tilted>0</tilted></_>
    <_>
      <rects>
        <_>
          11 5 8 14 -1.</_>
        <_>
          15 5 4 14 2.</_></rects>
      <tilted>0</tilted></_>
    <_>
      <rects>
        <_>
          11 12 5 6 -1.</_>
        <_>
          11 15 5 3 2.</_></rects>
      <tilted>0</tilted></_>
    <_>
      <rects>
        <_>
          11 13 4 4 -1.</_>
        <_>
          11 13 2 2 2.</_>
        <_>
          13 15 2 2 2.</_></rects>
      <tilted>0</tilted></_>
    <_>
      <rects>
        <_>
          11 17 8 16 -1.</_>
        <_>
          11 17 4 8 2.</_>
        <_>
          15 25 4 8 2.</_></rects>
      <tilted>0</tilted></_>
    <_>
      <rects>
        <_>
          11 21 2 1 -1.</_>
        <_>
          12 21 1 1 2.</_></rects>
      <tilted>0</tilted></_>
    <_>
      <rects>
        <_>
          12 4 6 11 -1.</_>
        <_>
          15 4 3 11 2.</_></rects>
      <tilted>0</tilted></_>
    <_>
      <rects>
        <_>
          12 5 10 8 -1.</_>
        <_>
          12 9 10 4 2.</_></rects>
      <tilted>0</tilted></_>
    <_>
      <rects>
        <_>
          12 6 12 26 -1.</_>
        <_>
          12 6 6 13 2.</_>
        <_>
          18 19 6 13 2.</_></rects>
      <tilted>0</tilted></_>
    <_>
      <rects>
        <_>
          12 9 6 4 -1.</_>
        <_>
          12 9 3 2 2.</_>
        <_>
          15 11 3 2 2.</_></rects>
      <tilted>0</tilted></_>
    <_>
      <rects>
        <_>
          12 15 2 6 -1.</_>
        <_>
          12 17 2 2 3.</_></rects>
      <tilted>0</tilted></_>
    <_>
      <rects>
        <_>
          12 30 4 6 -1.</_>
        <_>
          12 30 2 3 2.</_>
        <_>
          14 33 2 3 2.</_></rects>
      <tilted>0</tilted></_>
    <_>
      <rects>
        <_>
          13 0 8 18 -1.</_>
        <_>
          17 0 4 18 2.</_></rects>
      <tilted>0</tilted></_>
    <_>
      <rects>
        <_>
          13 7 10 6 -1.</_>
        <_>
          13 10 10 3 2.</_></rects>
      <tilted>0</tilted></_>
    <_>
      <rects>
        <_>
          13 20 9 14 -1.</_>
        <_>
          16 20 3 14 3.</_></rects>
      <tilted>0</tilted></_>
    <_>
      <rects>
        <_>
          13 34 6 2 -1.</_>
        <_>
          15 34 2 2 3.</_></rects>
      <tilted>0</tilted></_>
    <_>
      <rects>
        <_>
          14 0 5 36 -1.</_>
        <_>
          14 18 5 18 2.</_></rects>
      <tilted>0</tilted></_>
    <_>
      <rects>
        <_>
          14 10 10 8 -1.</_>
        <_>
          19 10 5 8 2.</_></rects>
      <tilted>0</tilted></_>
    <_>
      <rects>
        <_>
          14 14 3 4 -1.</_>
        <_>
          14 16 3 2 2.</_></rects>
      <tilted>0</tilted></_>
    <_>
      <rects>
        <_>
          14 16 9 16 -1.</_>
        <_>
          17 16 3 16 3.</_></rects>
      <tilted>0</tilted></_>
    <_>
      <rects>
        <_>
          14 18 9 18 -1.</_>
        <_>
          17 18 3 18 3.</_></rects>
      <tilted>0</tilted></_>
    <_>
      <rects>
        <_>
          15 2 9 4 -1.</_>
        <_>
          18 2 3 4 3.</_></rects>
      <tilted>0</tilted></_>
    <_>
      <rects>
        <_>
          16 0 6 5 -1.</_>
        <_>
          18 0 2 5 3.</_></rects>
      <tilted>0</tilted></_>
    <_>
      <rects>
        <_>
          16 11 8 12 -1.</_>
        <_>
          16 11 4 6 2.</_>
        <_>
          20 17 4 6 2.</_></rects>
      <tilted>0</tilted></_>
    <_>
      <rects>
        <_>
          16 13 8 18 -1.</_>
        <_>
          20 13 4 18 2.</_></rects>
      <tilted>0</tilted></_>
    <_>
      <rects>
        <_>
          16 23 8 2 -1.</_>
        <_>
          20 23 4 2 2.</_></rects>
      <tilted>0</tilted></_>
    <_>
      <rects>
        <_>
          17 14 2 6 -1.</_>
        <_>
          17 16 2 2 3.</_></rects>
      <tilted>0</tilted></_>
    <_>
      <rects>
        <_>
          18 0 6 12 -1.</_>
        <_>
          18 0 3 6 2.</_>
        <_>
          21 6 3 6 2.</_></rects>
      <tilted>0</tilted></_>
    <_>
      <rects>
        <_>
          18 1 2 6 -1.</_>
        <_>
          18 3 2 2 3.</_></rects>
      <tilted>0</tilted></_>
    <_>
      <rects>
        <_>
          18 4 6 32 -1.</_>
        <_>
          18 20 6 16 2.</_></rects>
      <tilted>0</tilted></_>
    <_>
      <rects>
        <_>
          18 7 6 14 -1.</_>
        <_>
          18 7 3 7 2.</_>
        <_>
          21 14 3 7 2.</_></rects>
      <tilted>0</tilted></_>
    <_>
      <rects>
        <_>
          18 27 6 5 -1.</_>
        <_>
          20 27 2 5 3.</_></rects>
      <tilted>0</tilted></_>
    <_>
      <rects>
        <_>
          18 29 6 5 -1.</_>
        <_>
          21 29 3 5 2.</_></rects>
      <tilted>0</tilted></_>
    <_>
      <rects>
        <_>
          18 30 6 6 -1.</_>
        <_>
          18 30 3 3 2.</_>
        <_>
          21 33 3 3 2.</_></rects>
      <tilted>0</tilted></_>
    <_>
      <rects>
        <_>
          19 1 4 6 -1.</_>
        <_>
          19 3 4 2 3.</_></rects>
      <tilted>0</tilted></_>
    <_>
      <rects>
        <_>
          19 3 4 30 -1.</_>
        <_>
          21 3 2 30 2.</_></rects>
      <tilted>0</tilted></_>
    <_>
      <rects>
        <_>
          19 7 4 18 -1.</_>
        <_>
          19 7 2 9 2.</_>
        <_>
          21 16 2 9 2.</_></rects>
      <tilted>0</tilted></_>
    <_>
      <rects>
        <_>
          20 14 4 22 -1.</_>
        <_>
          20 14 2 11 2.</_>
        <_>
          22 25 2 11 2.</_></rects>
      <tilted>0</tilted></_></features></cascade>
</opencv_storage>
